<?xml version="1.0"?>
<opencv_storage>
<cascade>
  <stageType>BOOST</stageType>
  <featureType>HAAR</featureType>
  <height>24</height>
  <width>36</width>
  <stageParams>
    <boostType>GAB</boostType>
    <minHitRate>9.9500000476837158e-01</minHitRate>
    <maxFalseAlarm>5.0000000000000000e-01</maxFalseAlarm>
    <weightTrimRate>9.4999998807907104e-01</weightTrimRate>
    <maxDepth>1</maxDepth>
    <maxWeakCount>100</maxWeakCount></stageParams>
  <featureParams>
    <maxCatCount>0</maxCatCount>
    <featSize>1</featSize>
    <mode>BASIC</mode></featureParams>
  <stageNum>15</stageNum>
  <stages>
    <!-- stage 0 -->
    <_>
      <maxWeakCount>2</maxWeakCount>
      <stageThreshold>-3.6290746927261353e-01</stageThreshold>
      <weakClassifiers>
        <_>
          <internalNodes>
            0 -1 10 -2.7453994750976563e-01</internalNodes>
          <leafValues>
            1. -7.9274612665176392e-01</leafValues></_>
        <_>
          <internalNodes>
            0 -1 50 2.6426979457028210e-04</internalNodes>
          <leafValues>
            -9.7163587808609009e-01 4.2983862757682800e-01</leafValues></_></weakClassifiers></_>
    <!-- stage 1 -->
    <_>
      <maxWeakCount>4</maxWeakCount>
      <stageThreshold>-8.3766239881515503e-01</stageThreshold>
      <weakClassifiers>
        <_>
          <internalNodes>
            0 -1 21 -1.6761799156665802e-01</internalNodes>
          <leafValues>
            8.2857143878936768e-01 -7.5789475440979004e-01</leafValues></_>
        <_>
          <internalNodes>
            0 -1 34 -8.4791054177912883e-06</internalNodes>
          <leafValues>
            5.4866456985473633e-01 -8.3435517549514771e-01</leafValues></_>
        <_>
          <internalNodes>
            0 -1 46 1.6653854981996119e-04</internalNodes>
          <leafValues>
            3.7740179896354675e-01 -9.7608959674835205e-01</leafValues></_>
        <_>
          <internalNodes>
            0 -1 55 8.1515769124962389e-05</internalNodes>
          <leafValues>
            3.7718570232391357e-01 -9.4317102432250977e-01</leafValues></_></weakClassifiers></_>
    <!-- stage 2 -->
    <_>
      <maxWeakCount>4</maxWeakCount>
      <stageThreshold>-5.8989244699478149e-01</stageThreshold>
      <weakClassifiers>
        <_>
          <internalNodes>
            0 -1 16 -3.5122282803058624e-02</internalNodes>
          <leafValues>
            9.6428573131561279e-01 -6.8627452850341797e-01</leafValues></_>
        <_>
          <internalNodes>
            0 -1 51 -1.6566380509175360e-05</internalNodes>
          <leafValues>
            3.9171582460403442e-01 -9.0221226215362549e-01</leafValues></_>
        <_>
          <internalNodes>
            0 -1 44 -2.5391003873664886e-05</internalNodes>
          <leafValues>
            4.8164850473403931e-01 -7.7614969015121460e-01</leafValues></_>
        <_>
          <internalNodes>
            0 -1 1 1.6632860060781240e-03</internalNodes>
          <leafValues>
            -7.2489428520202637e-01 5.1694583892822266e-01</leafValues></_></weakClassifiers></_>
    <!-- stage 3 -->
    <_>
      <maxWeakCount>3</maxWeakCount>
      <stageThreshold>-8.2825934886932373e-01</stageThreshold>
      <weakClassifiers>
        <_>
          <internalNodes>
            0 -1 25 -4.7365918755531311e-02</internalNodes>
          <leafValues>
            6.0493826866149902e-01 -7.5418996810913086e-01</leafValues></_>
        <_>
          <internalNodes>
            0 -1 40 -3.7965357478242368e-05</internalNodes>
          <leafValues>
            3.7484806776046753e-01 -8.8029015064239502e-01</leafValues></_>
        <_>
          <internalNodes>
            0 -1 2 -8.5326634347438812e-02</internalNodes>
          <leafValues>
            9.2435437440872192e-01 -4.4891747832298279e-01</leafValues></_></weakClassifiers></_>
    <!-- stage 4 -->
    <_>
      <maxWeakCount>2</maxWeakCount>
      <stageThreshold>-3.0400454998016357e-01</stageThreshold>
      <weakClassifiers>
        <_>
          <internalNodes>
            0 -1 30 -1.1068744584918022e-02</internalNodes>
          <leafValues>
            7.0967739820480347e-01 -6.5656566619873047e-01</leafValues></_>
        <_>
          <internalNodes>
            0 -1 7 2.6673958927858621e-05</internalNodes>
          <leafValues>
            -9.0758597850799561e-01 3.5256108641624451e-01</leafValues></_></weakClassifiers></_>
    <!-- stage 5 -->
    <_>
      <maxWeakCount>4</maxWeakCount>
      <stageThreshold>-9.1142916679382324e-01</stageThreshold>
      <weakClassifiers>
        <_>
          <internalNodes>
            0 -1 23 -9.3479715287685394e-02</internalNodes>
          <leafValues>
            9.2156863212585449e-01 -6.3636362552642822e-01</leafValues></_>
        <_>
          <internalNodes>
            0 -1 52 -2.2358824935508892e-05</internalNodes>
          <leafValues>
            3.4452605247497559e-01 -9.1592258214950562e-01</leafValues></_>
        <_>
          <internalNodes>
            0 -1 39 1.7934778588823974e-04</internalNodes>
          <leafValues>
            2.8160852193832397e-01 -8.7709790468215942e-01</leafValues></_>
        <_>
          <internalNodes>
            0 -1 36 3.7084956420585513e-04</internalNodes>
          <leafValues>
            -8.6851978302001953e-01 3.5924851894378662e-01</leafValues></_></weakClassifiers></_>
    <!-- stage 6 -->
    <_>
      <maxWeakCount>4</maxWeakCount>
      <stageThreshold>-6.8412506580352783e-01</stageThreshold>
      <weakClassifiers>
        <_>
          <internalNodes>
            0 -1 24 -2.5218937546014786e-02</internalNodes>
          <leafValues>
            9.1111111640930176e-01 -5.9069764614105225e-01</leafValues></_>
        <_>
          <internalNodes>
            0 -1 53 -9.6390203907503746e-06</internalNodes>
          <leafValues>
            4.1995421051979065e-01 -7.9473847150802612e-01</leafValues></_>
        <_>
          <internalNodes>
            0 -1 12 -7.0263406087178737e-05</internalNodes>
          <leafValues>
            -8.8970637321472168e-01 3.5197326540946960e-01</leafValues></_>
        <_>
          <internalNodes>
            0 -1 49 1.3060256605967879e-04</internalNodes>
          <leafValues>
            -8.6535489559173584e-01 3.9336907863616943e-01</leafValues></_></weakClassifiers></_>
    <!-- stage 7 -->
    <_>
      <maxWeakCount>4</maxWeakCount>
      <stageThreshold>-4.9293127655982971e-01</stageThreshold>
      <weakClassifiers>
        <_>
          <internalNodes>
            0 -1 28 1.1199390143156052e-01</internalNodes>
          <leafValues>
            -6.5979379415512085e-01 6.3636362552642822e-01</leafValues></_>
        <_>
          <internalNodes>
            0 -1 29 -2.2727051749825478e-02</internalNodes>
          <leafValues>
            5.8053755760192871e-01 -5.9231483936309814e-01</leafValues></_>
        <_>
          <internalNodes>
            0 -1 3 7.9902092693373561e-05</internalNodes>
          <leafValues>
            -7.2196739912033081e-01 4.2820525169372559e-01</leafValues></_>
        <_>
          <internalNodes>
            0 -1 8 2.6137153618037701e-03</internalNodes>
          <leafValues>
            3.3097210526466370e-01 -9.6808898448944092e-01</leafValues></_></weakClassifiers></_>
    <!-- stage 8 -->
    <_>
      <maxWeakCount>4</maxWeakCount>
      <stageThreshold>-6.7007476091384888e-01</stageThreshold>
      <weakClassifiers>
        <_>
          <internalNodes>
            0 -1 14 -3.1476438045501709e-01</internalNodes>
          <leafValues>
            8.7500000000000000e-01 -6.0377359390258789e-01</leafValues></_>
        <_>
          <internalNodes>
            0 -1 6 2.6652385713532567e-05</internalNodes>
          <leafValues>
            -6.7092955112457275e-01 4.0927809476852417e-01</leafValues></_>
        <_>
          <internalNodes>
            0 -1 18 2.6332967536291108e-05</internalNodes>
          <leafValues>
            -7.0330876111984253e-01 3.7003150582313538e-01</leafValues></_>
        <_>
          <internalNodes>
            0 -1 41 1.2078069630661048e-05</internalNodes>
          <leafValues>
            3.1697979569435120e-01 -8.4561079740524292e-01</leafValues></_></weakClassifiers></_>
    <!-- stage 9 -->
    <_>
      <maxWeakCount>4</maxWeakCount>
      <stageThreshold>-7.2479468584060669e-01</stageThreshold>
      <weakClassifiers>
        <_>
          <internalNodes>
            0 -1 22 -1.3696548342704773e-01</internalNodes>
          <leafValues>
            8.1132078170776367e-01 -6.2318837642669678e-01</leafValues></_>
        <_>
          <internalNodes>
            0 -1 32 -3.6371377063915133e-05</internalNodes>
          <leafValues>
            -8.6153930425643921e-01 3.8998058438301086e-01</leafValues></_>
        <_>
          <internalNodes>
            0 -1 43 -1.1311938578728586e-04</internalNodes>
          <leafValues>
            -9.8537445068359375e-01 2.4277779459953308e-01</leafValues></_>
        <_>
          <internalNodes>
            0 -1 9 -2.0287585357436910e-05</internalNodes>
          <leafValues>
            5.1715523004531860e-01 -5.7325822114944458e-01</leafValues></_></weakClassifiers></_>
    <!-- stage 10 -->
    <_>
      <maxWeakCount>4</maxWeakCount>
      <stageThreshold>-7.6481693983078003e-01</stageThreshold>
      <weakClassifiers>
        <_>
          <internalNodes>
            0 -1 16 -4.7989018261432648e-02</internalNodes>
          <leafValues>
            8.2222223281860352e-01 -5.7209300994873047e-01</leafValues></_>
        <_>
          <internalNodes>
            0 -1 42 1.5770508907735348e-03</internalNodes>
          <leafValues>
            -7.8499871492385864e-01 3.3795604109764099e-01</leafValues></_>
        <_>
          <internalNodes>
            0 -1 45 2.1985900821164250e-04</internalNodes>
          <leafValues>
            2.6741287112236023e-01 -9.1926008462905884e-01</leafValues></_>
        <_>
          <internalNodes>
            0 -1 0 -2.9858580091968179e-05</internalNodes>
          <leafValues>
            3.8858011364936829e-01 -6.8210732936859131e-01</leafValues></_></weakClassifiers></_>
    <!-- stage 11 -->
    <_>
      <maxWeakCount>3</maxWeakCount>
      <stageThreshold>-6.2029105424880981e-01</stageThreshold>
      <weakClassifiers>
        <_>
          <internalNodes>
            0 -1 13 -3.2165604829788208e-01</internalNodes>
          <leafValues>
            1. -5.2422904968261719e-01</leafValues></_>
        <_>
          <internalNodes>
            0 -1 11 -1.9734013825654984e-02</internalNodes>
          <leafValues>
            6.7034101486206055e-01 -5.1089859008789063e-01</leafValues></_>
        <_>
          <internalNodes>
            0 -1 20 2.7484391466714442e-05</internalNodes>
          <leafValues>
            -7.6441264152526855e-01 4.1483658552169800e-01</leafValues></_></weakClassifiers></_>
    <!-- stage 12 -->
    <_>
      <maxWeakCount>5</maxWeakCount>
      <stageThreshold>-9.0896624326705933e-01</stageThreshold>
      <weakClassifiers>
        <_>
          <internalNodes>
            0 -1 35 -2.5659070161054842e-05</internalNodes>
          <leafValues>
            2.2834645211696625e-01 -8.6466163396835327e-01</leafValues></_>
        <_>
          <internalNodes>
            0 -1 37 -1.5588654787279665e-04</internalNodes>
          <leafValues>
            -8.9989691972732544e-01 2.0115309953689575e-01</leafValues></_>
        <_>
          <internalNodes>
            0 -1 47 -4.3365293095121160e-05</internalNodes>
          <leafValues>
            -7.9722172021865845e-01 3.1008961796760559e-01</leafValues></_>
        <_>
          <internalNodes>
            0 -1 33 2.8198503423482180e-04</internalNodes>
          <leafValues>
            -7.6166009902954102e-01 3.6038026213645935e-01</leafValues></_>
        <_>
          <internalNodes>
            0 -1 38 1.6560491349082440e-04</internalNodes>
          <leafValues>
            3.1793838739395142e-01 -9.0788567066192627e-01</leafValues></_></weakClassifiers></_>
    <!-- stage 13 -->
    <_>
      <maxWeakCount>5</maxWeakCount>
      <stageThreshold>-8.2433170080184937e-01</stageThreshold>
      <weakClassifiers>
        <_>
          <internalNodes>
            0 -1 26 9.2431508004665375e-02</internalNodes>
          <leafValues>
            -5.2678573131561279e-01 8.8888889551162720e-01</leafValues></_>
        <_>
          <internalNodes>
            0 -1 15 7.3739066720008850e-02</internalNodes>
          <leafValues>
            -4.6713444590568542e-01 6.9826734066009521e-01</leafValues></_>
        <_>
          <internalNodes>
            0 -1 27 -2.9058777727186680e-05</internalNodes>
          <leafValues>
            5.9215193986892700e-01 -5.7663077116012573e-01</leafValues></_>
        <_>
          <internalNodes>
            0 -1 5 -6.7602806666400284e-05</internalNodes>
          <leafValues>
            -6.6427677869796753e-01 4.7871789336204529e-01</leafValues></_>
        <_>
          <internalNodes>
            0 -1 54 2.4262524675577879e-05</internalNodes>
          <leafValues>
            -9.0128141641616821e-01 2.9091337323188782e-01</leafValues></_></weakClassifiers></_>
    <!-- stage 14 -->
    <_>
      <maxWeakCount>5</maxWeakCount>
      <stageThreshold>-1.4595555067062378e+00</stageThreshold>
      <weakClassifiers>
        <_>
          <internalNodes>
            0 -1 4 6.3559797126799822e-04</internalNodes>
          <leafValues>
            -8.1690138578414917e-01 2.5423729419708252e-01</leafValues></_>
        <_>
          <internalNodes>
            0 -1 48 -2.2440486645791680e-05</internalNodes>
          <leafValues>
            2.8091132640838623e-01 -8.0160027742385864e-01</leafValues></_>
        <_>
          <internalNodes>
            0 -1 19 1.8256208568345755e-04</internalNodes>
          <leafValues>
            3.4294268488883972e-01 -7.6175415515899658e-01</leafValues></_>
        <_>
          <internalNodes>
            0 -1 31 3.0158294975990430e-05</internalNodes>
          <leafValues>
            -6.1342817544937134e-01 4.8858094215393066e-01</leafValues></_>
        <_>
          <internalNodes>
            0 -1 17 2.3994331058929674e-05</internalNodes>
          <leafValues>
            -6.7257738113403320e-01 4.0714666247367859e-01</leafValues></_></weakClassifiers></_></stages>
  <features>
    <_>
      <rects>
        <_>
          0 0 4 16 -1.</_>
        <_>
          0 0 2 8 2.</_>
        <_>
          2 8 2 8 2.</_></rects>
      <tilted>0</tilted></_>
    <_>
      <rects>
        <_>
          0 0 3 6 -1.</_>
        <_>
          0 3 3 3 2.</_></rects>
      <tilted>0</tilted></_>
    <_>
      <rects>
        <_>
          0 13 20 5 -1.</_>
        <_>
          10 13 10 5 2.</_></rects>
      <tilted>0</tilted></_>
    <_>
      <rects>
        <_>
          0 18 9 2 -1.</_>
        <_>
          3 18 3 2 3.</_></rects>
      <tilted>0</tilted></_>
    <_>
      <rects>
        <_>
          0 23 27 1 -1.</_>
        <_>
          9 23 9 1 3.</_></rects>
      <tilted>0</tilted></_>
    <_>
      <rects>
        <_>
          1 14 6 8 -1.</_>
        <_>
          1 14 3 4 2.</_>
        <_>
          4 18 3 4 2.</_></rects>
      <tilted>0</tilted></_>
    <_>
      <rects>
        <_>
          1 22 2 2 -1.</_>
        <_>
          2 22 1 2 2.</_></rects>
      <tilted>0</tilted></_>
    <_>
      <rects>
        <_>
          1 23 9 1 -1.</_>
        <_>
          4 23 3 1 3.</_></rects>
      <tilted>0</tilted></_>
    <_>
      <rects>
        <_>
          1 23 15 1 -1.</_>
        <_>
          6 23 5 1 3.</_></rects>
      <tilted>0</tilted></_>
    <_>
      <rects>
        <_>
          2 22 2 2 -1.</_>
        <_>
          2 23 2 1 2.</_></rects>
      <tilted>0</tilted></_>
    <_>
      <rects>
        <_>
          3 7 33 12 -1.</_>
        <_>
          14 7 11 12 3.</_></rects>
      <tilted>0</tilted></_>
    <_>
      <rects>
        <_>
          3 14 20 1 -1.</_>
        <_>
          13 14 10 1 2.</_></rects>
      <tilted>0</tilted></_>
    <_>
      <rects>
        <_>
          3 23 12 1 -1.</_>
        <_>
          7 23 4 1 3.</_></rects>
      <tilted>0</tilted></_>
    <_>
      <rects>
        <_>
          4 0 25 21 -1.</_>
        <_>
          4 7 25 7 3.</_></rects>
      <tilted>0</tilted></_>
    <_>
      <rects>
        <_>
          4 8 30 9 -1.</_>
        <_>
          14 8 10 9 3.</_></rects>
      <tilted>0</tilted></_>
    <_>
      <rects>
        <_>
          5 2 23 12 -1.</_>
        <_>
          5 6 23 4 3.</_></rects>
      <tilted>0</tilted></_>
    <_>
      <rects>
        <_>
          5 12 30 1 -1.</_>
        <_>
          15 12 10 1 3.</_></rects>
      <tilted>0</tilted></_>
    <_>
      <rects>
        <_>
          5 21 8 3 -1.</_>
        <_>
          5 22 8 1 3.</_></rects>
      <tilted>0</tilted></_>
    <_>
      <rects>
        <_>
          5 23 9 1 -1.</_>
        <_>
          8 23 3 1 3.</_></rects>
      <tilted>0</tilted></_>
    <_>
      <rects>
        <_>
          6 0 2 18 -1.</_>
        <_>
          6 0 1 9 2.</_>
        <_>
          7 9 1 9 2.</_></rects>
      <tilted>0</tilted></_>
    <_>
      <rects>
        <_>
          6 7 2 2 -1.</_>
        <_>
          6 8 2 1 2.</_></rects>
      <tilted>0</tilted></_>
    <_>
      <rects>
        <_>
          6 9 27 8 -1.</_>
        <_>
          15 9 9 8 3.</_></rects>
      <tilted>0</tilted></_>
    <_>
      <rects>
        <_>
          7 8 14 11 -1.</_>
        <_>
          14 8 7 11 2.</_></rects>
      <tilted>0</tilted></_>
    <_>
      <rects>
        <_>
          8 11 24 3 -1.</_>
        <_>
          16 11 8 3 3.</_></rects>
      <tilted>0</tilted></_>
    <_>
      <rects>
        <_>
          11 12 18 1 -1.</_>
        <_>
          17 12 6 1 3.</_></rects>
      <tilted>0</tilted></_>
    <_>
      <rects>
        <_>
          14 7 12 14 -1.</_>
        <_>
          18 7 4 14 3.</_></rects>
      <tilted>0</tilted></_>
    <_>
      <rects>
        <_>
          14 9 12 10 -1.</_>
        <_>
          14 14 12 5 2.</_></rects>
      <tilted>0</tilted></_>
    <_>
      <rects>
        <_>
          14 22 1 2 -1.</_>
        <_>
          14 23 1 1 2.</_></rects>
      <tilted>0</tilted></_>
    <_>
      <rects>
        <_>
          15 1 20 14 -1.</_>
        <_>
          15 1 10 7 2.</_>
        <_>
          25 8 10 7 2.</_></rects>
      <tilted>0</tilted></_>
    <_>
      <rects>
        <_>
          16 3 9 21 -1.</_>
        <_>
          19 3 3 21 3.</_></rects>
      <tilted>0</tilted></_>
    <_>
      <rects>
        <_>
          18 1 1 14 -1.</_>
        <_>
          18 8 1 7 2.</_></rects>
      <tilted>0</tilted></_>
    <_>
      <rects>
        <_>
          25 14 4 3 -1.</_>
        <_>
          25 15 4 1 3.</_></rects>
      <tilted>0</tilted></_>
    <_>
      <rects>
        <_>
          25 21 6 3 -1.</_>
        <_>
          25 22 6 1 3.</_></rects>
      <tilted>0</tilted></_>
    <_>
      <rects>
        <_>
          28 18 8 6 -1.</_>
        <_>
          28 20 8 2 3.</_></rects>
      <tilted>0</tilted></_>
    <_>
      <rects>
        <_>
          28 22 1 2 -1.</_>
        <_>
          28 23 1 1 2.</_></rects>
      <tilted>0</tilted></_>
    <_>
      <rects>
        <_>
          29 21 4 2 -1.</_>
        <_>
          29 22 4 1 2.</_></rects>
      <tilted>0</tilted></_>
    <_>
      <rects>
        <_>
          30 0 3 12 -1.</_>
        <_>
          30 4 3 4 3.</_></rects>
      <tilted>0</tilted></_>
    <_>
      <rects>
        <_>
          30 1 3 20 -1.</_>
        <_>
          31 1 1 20 3.</_></rects>
      <tilted>0</tilted></_>
    <_>
      <rects>
        <_>
          30 3 3 4 -1.</_>
        <_>
          31 3 1 4 3.</_></rects>
      <tilted>0</tilted></_>
    <_>
      <rects>
        <_>
          31 4 3 11 -1.</_>
        <_>
          32 4 1 11 3.</_></rects>
      <tilted>0</tilted></_>
    <_>
      <rects>
        <_>
          32 1 2 2 -1.</_>
        <_>
          33 1 1 2 2.</_></rects>
      <tilted>0</tilted></_>
    <_>
      <rects>
        <_>
          32 4 2 15 -1.</_>
        <_>
          33 4 1 15 2.</_></rects>
      <tilted>0</tilted></_>
    <_>
      <rects>
        <_>
          32 5 4 15 -1.</_>
        <_>
          32 10 4 5 3.</_></rects>
      <tilted>0</tilted></_>
    <_>
      <rects>
        <_>
          32 10 3 14 -1.</_>
        <_>
          33 10 1 14 3.</_></rects>
      <tilted>0</tilted></_>
    <_>
      <rects>
        <_>
          32 22 3 2 -1.</_>
        <_>
          32 23 3 1 2.</_></rects>
      <tilted>0</tilted></_>
    <_>
      <rects>
        <_>
          33 2 3 12 -1.</_>
        <_>
          34 2 1 12 3.</_></rects>
      <tilted>0</tilted></_>
    <_>
      <rects>
        <_>
          33 6 3 6 -1.</_>
        <_>
          34 6 1 6 3.</_></rects>
      <tilted>0</tilted></_>
    <_>
      <rects>
        <_>
          33 16 2 4 -1.</_>
        <_>
          33 16 1 2 2.</_>
        <_>
          34 18 1 2 2.</_></rects>
      <tilted>0</tilted></_>
    <_>
      <rects>
        <_>
          33 19 1 4 -1.</_>
        <_>
          33 21 1 2 2.</_></rects>
      <tilted>0</tilted></_>
    <_>
      <rects>
        <_>
          34 1 2 9 -1.</_>
        <_>
          34 4 2 3 3.</_></rects>
      <tilted>0</tilted></_>
    <_>
      <rects>
        <_>
          34 2 1 15 -1.</_>
        <_>
          34 7 1 5 3.</_></rects>
      <tilted>0</tilted></_>
    <_>
      <rects>
        <_>
          34 5 2 1 -1.</_>
        <_>
          35 5 1 1 2.</_></rects>
      <tilted>0</tilted></_>
    <_>
      <rects>
        <_>
          34 7 2 2 -1.</_>
        <_>
          35 7 1 2 2.</_></rects>
      <tilted>0</tilted></_>
    <_>
      <rects>
        <_>
          34 19 2 4 -1.</_>
        <_>
          34 21 2 2 2.</_></rects>
      <tilted>0</tilted></_>
    <_>
      <rects>
        <_>
          35 2 1 2 -1.</_>
        <_>
          35 3 1 1 2.</_></rects>
      <tilted>0</tilted></_>
    <_>
      <rects>
        <_>
          35 15 1 4 -1.</_>
        <_>
          35 17 1 2 2.</_></rects>
      <tilted>0</tilted></_></features></cascade>
</opencv_storage>
