<?xml version="1.0"?>
<opencv_storage>
<stage13>
  <maxWeakCount>5</maxWeakCount>
  <stageThreshold>-8.2433170080184937e-01</stageThreshold>
  <weakClassifiers>
    <_>
      <internalNodes>
        0 -1 235385 9.2431508004665375e-02</internalNodes>
      <leafValues>
        -5.2678573131561279e-01 8.8888889551162720e-01</leafValues></_>
    <_>
      <internalNodes>
        0 -1 97732 7.3739066720008850e-02</internalNodes>
      <leafValues>
        -4.6713444590568542e-01 6.9826734066009521e-01</leafValues></_>
    <_>
      <internalNodes>
        0 -1 239590 -2.9058777727186680e-05</internalNodes>
      <leafValues>
        5.9215193986892700e-01 -5.7663077116012573e-01</leafValues></_>
    <_>
      <internalNodes>
        0 -1 35915 -6.7602806666400284e-05</internalNodes>
      <leafValues>
        -6.6427677869796753e-01 4.7871789336204529e-01</leafValues></_>
    <_>
      <internalNodes>
        0 -1 363834 2.4262524675577879e-05</internalNodes>
      <leafValues>
        -9.0128141641616821e-01 2.9091337323188782e-01</leafValues></_></weakClassifiers></stage13>
</opencv_storage>
