<?xml version="1.0"?>
<opencv_storage>
<stage14>
  <maxWeakCount>5</maxWeakCount>
  <stageThreshold>-1.4595555067062378e+00</stageThreshold>
  <weakClassifiers>
    <_>
      <internalNodes>
        0 -1 20075 6.3559797126799822e-04</internalNodes>
      <leafValues>
        -8.1690138578414917e-01 2.5423729419708252e-01</leafValues></_>
    <_>
      <internalNodes>
        0 -1 362823 -2.2440486645791680e-05</internalNodes>
      <leafValues>
        2.8091132640838623e-01 -8.0160027742385864e-01</leafValues></_>
    <_>
      <internalNodes>
        0 -1 110935 1.8256208568345755e-04</internalNodes>
      <leafValues>
        3.4294268488883972e-01 -7.6175415515899658e-01</leafValues></_>
    <_>
      <internalNodes>
        0 -1 334548 3.0158294975990430e-05</internalNodes>
      <leafValues>
        -6.1342817544937134e-01 4.8858094215393066e-01</leafValues></_>
    <_>
      <internalNodes>
        0 -1 110685 2.3994331058929674e-05</internalNodes>
      <leafValues>
        -6.7257738113403320e-01 4.0714666247367859e-01</leafValues></_></weakClassifiers></stage14>
</opencv_storage>
